const brainStorage = '{"levels":[{"inputs":[0.5244806971253724,0,0,0,0,0,0,0,0,0.19218217804771565,0.29500000000000004,0.3],"outputs":[1,0,0,1,0,0,0,1],"biases":[0.04192477652333142,0.5237253280588807,0.5024890390337092,0.015250876949975518,0.1580132081251411,0.016476923721507115,0.3665293660386707,-0.2896543020522635],"weights":[[0.22994404292592485,0.06628940460098773,0.10125101894713605,-0.05643377478146934,-0.0023758706263466225,-0.015103219374294341,-0.03972182728180963,0.25147899313891026],[-0.0027084510953872994,0.10997599626513609,-0.12141207540831395,-0.29226536042067736,-0.023464654737809214,0.04973071947341857,-0.04959781220575693,-0.34892266687600476],[0.07673859362539426,-0.1616444980778279,0.17253743280565947,-0.10030461612393216,-0.12006662290081246,0.23968495319542688,-0.01548519098587256,-0.3837403470769388],[0.1741647057016112,-0.20803669208166806,0.16719544856669358,-0.19971341790965727,0.050821844784639816,-0.21811886548487194,-0.02807388901684895,0.1416436484723872],[-0.24304076295505997,0.17019984403965735,-0.11882872555626614,-0.27466961753286334,-0.3333348109336536,0.2734925616802825,-0.14716256377476528,0.023554983639206446],[-0.2404612564585824,0.2247067115037939,0.18050089709891443,-0.16854416652742366,-0.06330567553255081,0.2378020585390756,0.1653174486498099,0.5233848973442272],[-0.10471396479998082,0.082976476501579,-0.16548600862907162,-0.19245084440977628,-0.19680466375583197,-0.10900253796494189,-0.07388174198563852,0.11583086698143047],[-0.04588640924465411,0.03454833928653153,-0.2844784573399608,0.023714864286557905,-0.35017994028266497,-0.09056979277100048,-0.12979666947017415,0.16527511865840708],[-0.2671335564653201,-0.2806199502977538,0.13051894178309364,-0.05032809698499122,-0.27479183801231627,0.13972504305081243,-0.02791197933254774,-0.14416454955334326],[0.16129477346338258,0.0845347854007413,-0.05248608890685637,0.17800868502184178,-0.3345092939466723,0.031809564185978564,-0.029623522260181126,0.28712909122565905],[-0.21222775737579283,-0.04106027339798658,-0.23320253000250507,0.06477457268858416,0.0650581861511299,-0.15744253858503005,-0.4045484230653048,-0.00010107712260211399],[0.28925807532921344,-0.07679188535558477,-0.05595628172231136,0.14995258276527823,-0.28740510513927275,0.04054967320433832,0.06399428726742062,-0.14966220623075147]]},{"inputs":[1,0,0,1,0,0,0,1],"outputs":[1,1,0,0],"biases":[-0.15916043357190257,-0.08716881956759001,0.1154597626411582,-0.19036298571396254],"weights":[[-0.0994548658041988,-0.2315233699514933,0.2122882896235883,-0.35031043361608893],[-0.20552662115568865,-0.14605451973384234,0.04367904037737712,0.4683293052965916],[-0.1947011385354044,0.08688154038953602,-0.36840262690275194,0.44534790664052937],[0.23017828956695235,0.12161134716103428,-0.019646256020877648,0.019315011427713816],[0.3094230964938426,-0.06905890961997482,-0.029701756395437907,0.16696595117976898],[0.06927971129811411,-0.07790847493778781,0.12338467144374143,-0.1484393858864791],[-0.08045125217455762,0.3794309315660719,0.03313773549438967,0.028773751251241257],[0.2593048445748418,0.131703865282145,-0.11735884589577691,-0.2743629939034809]]}]}'